-0.16205008,0.110458665,0.20612967,0.27708152,-0.028839434,-0.24723469,0.1399438,-0.1051916,-0.5350515,-0.010254283,-2.9593194,-0.007671445,-1.5507368,-0.72419494,0.07309616,-0.29345477
-0.24402778,-0.036959838,0.1498351,0.21301019,-0.18435612,0.035485655,-0.06625326,-0.0043799924,-0.08507342,0.08490941,-0.08653519,0.03505529,-0.28669745,-0.17198661,0.33661216,-0.3392407
0.06492161,-0.3392409,0.20425332,0.15985094,-0.17657872,-0.12485746,0.13816598,-0.025652518,-0.0038949696,0.055868935,-0.39068812,-0.00040965623,-0.048707396,0.26296684,0.4548429,-0.22087704
-0.2053615,0.32774758,-0.1038801,0.008137075,-0.011067222,0.039935958,0.25710696,0.031333014,0.114189126,-0.122401506,-0.24201548,-0.005294285,-0.489557,-0.5771057,0.031132108,0.10142246
0.0035023715,-0.09783699,-0.10667785,-0.083432905,-0.111721575,-0.008954393,0.074929655,-0.02110085,-0.048333805,0.11541049,0.038400237,0.6560415,0.065979525,0.30877286,-0.022965893,0.07272292
0.24680863,-0.13630375,0.12124248,-0.04368373,-0.10575563,0.0055114822,0.17114359,0.47275266,-0.012340377,0.05266403,0.054293726,-0.014199112,-0.28019705,0.3479383,0.1618384,-0.16474865
-0.02133571,0.1357466,-0.39586067,0.04466629,-0.0035990379,0.06954904,0.24568608,0.013009749,0.42000288,0.35377634,-0.23397052,-0.008323478,0.06141186,-0.8054663,0.00086594565,0.5341559
0.22321616,0.25881544,-0.21383052,0.20122579,-0.06352387,0.2665625,0.100582495,0.0049032397,0.08612117,0.20499636,-0.046486214,0.020066062,0.47720075,-0.403792,-0.09359498,-0.085993275
0.16338369,0.022704978,0.26132575,0.10647575,-0.00290745,0.16686346,0.20397954,0.029260486,0.01641178,-0.09467831,0.4443331,-0.004531875,-0.22260803,-0.33895323,0.110391125,-0.25775757
